<?xml version="1.0"?>
<opencv_storage>
<stage4>
  <maxWeakCount>15</maxWeakCount>
  <stageThreshold>-1.3543663024902344e+000</stageThreshold>
  <weakClassifiers>
    <_>
      <internalNodes>
        0 -1 42674 1.7507055401802063e-001</internalNodes>
      <leafValues>
        -3.8358923792839050e-001 5.4804199934005737e-001</leafValues></_>
    <_>
      <internalNodes>
        0 -1 1086 2.9718823730945587e-002</internalNodes>
      <leafValues>
        -3.8960129022598267e-001 4.1687485575675964e-001</leafValues></_>
    <_>
      <internalNodes>
        0 -1 8137 -4.7083034587558359e-005</internalNodes>
      <leafValues>
        6.1410725116729736e-001 -2.5595870614051819e-001</leafValues></_>
    <_>
      <internalNodes>
        0 -1 13394 -2.0224836771376431e-004</internalNodes>
      <leafValues>
        5.4715633392333984e-001 -2.8398481011390686e-001</leafValues></_>
    <_>
      <internalNodes>
        0 -1 27713 -2.8754338622093201e-002</internalNodes>
      <leafValues>
        -9.0666002035140991e-001 2.1678176522254944e-001</leafValues></_>
    <_>
      <internalNodes>
        0 -1 3 -2.1053692325949669e-003</internalNodes>
      <leafValues>
        7.5501507520675659e-001 -2.7252298593521118e-001</leafValues></_>
    <_>
      <internalNodes>
        0 -1 149760 -3.0795541533734649e-005</internalNodes>
      <leafValues>
        6.4391398429870605e-001 -2.4341677129268646e-001</leafValues></_>
    <_>
      <internalNodes>
        0 -1 3617 -1.5983015298843384e-002</internalNodes>
      <leafValues>
        6.7329585552215576e-001 -2.4139827489852905e-001</leafValues></_>
    <_>
      <internalNodes>
        0 -1 114415 1.4018590445630252e-004</internalNodes>
      <leafValues>
        -3.1713718175888062e-001 4.7238445281982422e-001</leafValues></_>
    <_>
      <internalNodes>
        0 -1 159718 6.0296632000245154e-005</internalNodes>
      <leafValues>
        -3.6191806197166443e-001 4.2115506529808044e-001</leafValues></_>
    <_>
      <internalNodes>
        0 -1 43866 -1.1689839884638786e-003</internalNodes>
      <leafValues>
        -9.0772116184234619e-001 1.6500836610794067e-001</leafValues></_>
    <_>
      <internalNodes>
        0 -1 7412 -6.4906671468634158e-005</internalNodes>
      <leafValues>
        4.1263216733932495e-001 -3.3735996484756470e-001</leafValues></_>
    <_>
      <internalNodes>
        0 -1 13299 5.8802543208003044e-005</internalNodes>
      <leafValues>
        -2.7561587095260620e-001 4.7041869163513184e-001</leafValues></_>
    <_>
      <internalNodes>
        0 -1 13178 1.4481932157650590e-004</internalNodes>
      <leafValues>
        -3.5329189896583557e-001 3.9810910820960999e-001</leafValues></_>
    <_>
      <internalNodes>
        0 -1 160 5.9900931082665920e-003</internalNodes>
      <leafValues>
        2.0606599748134613e-001 -7.2423976659774780e-001</leafValues></_></weakClassifiers></stage4>
</opencv_storage>
