<?xml version="1.0"?>
<opencv_storage>
<stage4>
  <maxWeakCount>15</maxWeakCount>
  <stageThreshold>-1.1211894750595093e+000</stageThreshold>
  <weakClassifiers>
    <_>
      <internalNodes>
        0 -1 564 8.6906757205724716e-003</internalNodes>
      <leafValues>
        -2.0899626612663269e-001 8.4061932563781738e-001</leafValues></_>
    <_>
      <internalNodes>
        0 -1 153091 -2.7996348217129707e-003</internalNodes>
      <leafValues>
        5.3937214612960815e-001 -4.4134470820426941e-001</leafValues></_>
    <_>
      <internalNodes>
        0 -1 161185 -2.0840125216636807e-004</internalNodes>
      <leafValues>
        5.7891869544982910e-001 -3.2220089435577393e-001</leafValues></_>
    <_>
      <internalNodes>
        0 -1 168 1.0545640252530575e-003</internalNodes>
      <leafValues>
        -4.8032441735267639e-001 3.3837446570396423e-001</leafValues></_>
    <_>
      <internalNodes>
        0 -1 13392 1.4284036587923765e-003</internalNodes>
      <leafValues>
        2.1793004870414734e-001 -8.8554066419601440e-001</leafValues></_>
    <_>
      <internalNodes>
        0 -1 13372 9.7543510491959751e-005</internalNodes>
      <leafValues>
        -4.9013552069664001e-001 4.5665696263313293e-001</leafValues></_>
    <_>
      <internalNodes>
        0 -1 8189 1.6357572167180479e-004</internalNodes>
      <leafValues>
        -3.2654845714569092e-001 5.5775821208953857e-001</leafValues></_>
    <_>
      <internalNodes>
        0 -1 26535 1.2408400885760784e-002</internalNodes>
      <leafValues>
        -2.5234371423721313e-001 6.7386305332183838e-001</leafValues></_>
    <_>
      <internalNodes>
        0 -1 5771 1.7546649277210236e-001</internalNodes>
      <leafValues>
        2.7149769663810730e-001 -6.8215852975845337e-001</leafValues></_>
    <_>
      <internalNodes>
        0 -1 61243 7.0814639329910278e-002</internalNodes>
      <leafValues>
        -6.9249993562698364e-001 2.1313093602657318e-001</leafValues></_>
    <_>
      <internalNodes>
        0 -1 112491 -2.7970863811788149e-005</internalNodes>
      <leafValues>
        5.2397680282592773e-001 -3.3001250028610229e-001</leafValues></_>
    <_>
      <internalNodes>
        0 -1 139237 -1.2488578795455396e-004</internalNodes>
      <leafValues>
        5.5326610803604126e-001 -2.8502747416496277e-001</leafValues></_>
    <_>
      <internalNodes>
        0 -1 3 -1.9283941946923733e-003</internalNodes>
      <leafValues>
        5.9485709667205811e-001 -2.1886675059795380e-001</leafValues></_>
    <_>
      <internalNodes>
        0 -1 42968 -1.2817490100860596e-001</internalNodes>
      <leafValues>
        -8.5340178012847900e-001 1.8218898773193359e-001</leafValues></_>
    <_>
      <internalNodes>
        0 -1 12805 2.6854802854359150e-005</internalNodes>
      <leafValues>
        -4.4268837571144104e-001 3.2582458853721619e-001</leafValues></_></weakClassifiers></stage4>
</opencv_storage>
